-0.76759207 -0.02878503 -0.24057920 -1.31637216 -0.38250229 0.38831952 0.73876989 0.00530647 -0.24236922 0.32432157
-0.51918733 -0.41936797 0.05563442 0.22529782 0.29671416 0.21516481 0.24834079 0.03139675 0.58326906 0.51273346
0.05290249 -0.22619930 -0.14414014 -0.18371987 0.05094653 -0.02448323 -0.20918040 -0.11999589 0.02990004 0.07600066
-0.31998563 0.25473261 0.13968308 0.06164651 0.03442455 -0.63636839 -0.09791303 -0.51748252 0.45306975 -0.12329932
0.22728294 -0.32732943 -0.01251355 -0.30156675 0.30705345 -0.24257818 0.17266399 0.00115736 0.41692623 -0.28378084
-0.62141818 -0.41927767 -0.33168405 -0.29198557 0.36700246 -0.13612007 -0.15680437 0.71617407 0.21613275 0.04624758
0.07617725 0.19418998 -0.30203667 0.07335228 -0.05825989 -0.17968486 0.21520650 -0.14883451 -0.32037309 -0.21357869
-0.19365969 0.39373630 0.05294788 -0.46456677 -0.18124920 -0.39867407 0.47819233 -0.19042942 0.25122091 0.06486067
0.91773778 0.17568730 -0.24953862 -0.34541523 -0.43670264 0.20858170 0.12042996 0.30507958 -1.50348127 -0.10420451
1.22774959 -0.67459357 0.16695778 -0.22227509 -0.03765746 -0.01835396 -0.56182742 0.09684806 -0.75842750 -0.37236056
